<?xml version="1.0"?>
<opencv_storage>
<myhaar type_id="opencv-haar-classifier">
  <size>
    24 24</size>
  <stages>
    <_>
      <trees>
        <_>
          <_>
            <feature>
              <rects>
                <_>
                  1 0 22 4 -1.</_>
                <_>
                  1 2 22 2 2.</_></rects>
              <tilted>0</tilted></feature>
            <threshold>-0.0201951302587986</threshold>
            <left_val>0.7780249118804932</left_val>
            <right_val>-0.6456949710845947</right_val></_></_>
        <_>
          <_>
            <feature>
              <rects>
                <_>
                  7 4 12 9 -1.</_>
                <_>
                  11 4 4 9 3.</_></rects>
              <tilted>0</tilted></feature>
            <threshold>-0.0123411901295185</threshold>
            <left_val>0.5372412800788879</left_val>
            <right_val>-0.4733966886997223</right_val></_></_>
        <_>
          <_>
            <feature>
              <rects>
                <_>
                  6 4 9 10 -1.</_>
                <_>
                  9 4 3 10 3.</_></rects>
              <tilted>0</tilted></feature>
            <threshold>-0.0160254891961813</threshold>
            <left_val>0.6367890238761902</left_val>
            <right_val>-0.6422712802886963</right_val></_></_></trees>
      <stage_threshold>-0.7507249712944031</stage_threshold>
      <parent>-1</parent>
      <next>-1</next></_>
    <_>
      <trees>
        <_>
          <_>
            <feature>
              <rects>
                <_>
                  7 9 8 12 -1.</_>
                <_>
                  7 12 8 6 2.</_></rects>
              <tilted>0</tilted></feature>
            <threshold>0.0166818499565125</threshold>
            <left_val>-0.6958659291267395</left_val>
            <right_val>0.6547127962112427</right_val></_></_>
        <_>
          <_>
            <feature>
              <rects>
                <_>
                  18 3 5 6 -1.</_>
                <_>
                  16 5 5 2 3.</_></rects>
              <tilted>1</tilted></feature>
            <threshold>0.0156253706663847</threshold>
            <left_val>-0.2919943034648895</left_val>
            <right_val>0.4845089912414551</right_val></_></_>
        <_>
          <_>
            <feature>
              <rects>
                <_>
                  0 16 6 8 -1.</_>
                <_>
                  0 16 3 4 2.</_>
                <_>
                  3 20 3 4 2.</_></rects>
              <tilted>0</tilted></feature>
            <threshold>0.0113900201395154</threshold>
            <left_val>-0.4289610981941223</left_val>
            <right_val>0.7077972888946533</right_val></_></_>
        <_>
          <_>
            <feature>
              <rects>
                <_>
                  18 3 5 6 -1.</_>
                <_>
                  16 5 5 2 3.</_></rects>
              <tilted>1</tilted></feature>
            <threshold>0.0360992401838303</threshold>
            <left_val>-0.0433818697929382</left_val>
            <right_val>0.3921054005622864</right_val></_></_>
        <_>
          <_>
            <feature>
              <rects>
                <_>
                  5 2 1 8 -1.</_>
                <_>
                  5 6 1 4 2.</_></rects>
              <tilted>0</tilted></feature>
            <threshold>5.2837008843198419e-004</threshold>
            <left_val>-0.6685348749160767</left_val>
            <right_val>0.3945718109607697</right_val></_></_>
        <_>
          <_>
            <feature>
              <rects>
                <_>
                  11 18 3 5 -1.</_>
                <_>
                  12 18 1 5 3.</_></rects>
              <tilted>0</tilted></feature>
            <threshold>1.0331729426980019e-003</threshold>
            <left_val>0.2158779054880142</left_val>
            <right_val>-0.9111474156379700</right_val></_></_></trees>
      <stage_threshold>-0.8497534990310669</stage_threshold>
      <parent>0</parent>
      <next>-1</next></_>
    <_>
      <trees>
        <_>
          <_>
            <feature>
              <rects>
                <_>
                  11 17 1 2 -1.</_>
                <_>
                  11 18 1 1 2.</_></rects>
              <tilted>0</tilted></feature>
            <threshold>-1.9429959138506092e-005</threshold>
            <left_val>0.5794932842254639</left_val>
            <right_val>-0.6602746248245239</right_val></_></_>
        <_>
          <_>
            <feature>
              <rects>
                <_>
                  2 0 20 4 -1.</_>
                <_>
                  2 2 20 2 2.</_></rects>
              <tilted>0</tilted></feature>
            <threshold>-0.0221144296228886</threshold>
            <left_val>0.5364832282066345</left_val>
            <right_val>-0.5328130125999451</right_val></_></_>
        <_>
          <_>
            <feature>
              <rects>
                <_>
                  10 19 1 2 -1.</_>
                <_>
                  10 20 1 1 2.</_></rects>
              <tilted>0</tilted></feature>
            <threshold>-1.7323309293715283e-005</threshold>
            <left_val>0.5434371232986450</left_val>
            <right_val>-0.5156403183937073</right_val></_></_>
        <_>
          <_>
            <feature>
              <rects>
                <_>
                  14 12 8 2 -1.</_>
                <_>
                  18 12 4 1 2.</_>
                <_>
                  14 13 4 1 2.</_></rects>
              <tilted>0</tilted></feature>
            <threshold>2.0322469063103199e-003</threshold>
            <left_val>0.1211879998445511</left_val>
            <right_val>-0.5169777870178223</right_val></_></_>
        <_>
          <_>
            <feature>
              <rects>
                <_>
                  4 0 10 10 -1.</_>
                <_>
                  9 0 5 10 2.</_></rects>
              <tilted>0</tilted></feature>
            <threshold>-0.0351593010127544</threshold>
            <left_val>0.4569647014141083</left_val>
            <right_val>-0.5721582174301148</right_val></_></_>
        <_>
          <_>
            <feature>
              <rects>
                <_>
                  10 18 4 6 -1.</_>
                <_>
                  11 18 2 6 2.</_></rects>
              <tilted>0</tilted></feature>
            <threshold>-2.0112209022045135e-003</threshold>
            <left_val>-0.9976003766059876</left_val>
            <right_val>0.2966063022613525</right_val></_></_></trees>
      <stage_threshold>-0.8339688777923584</stage_threshold>
      <parent>1</parent>
      <next>-1</next></_>
    <_>
      <trees>
        <_>
          <_>
            <feature>
              <rects>
                <_>
                  2 4 9 11 -1.</_>
                <_>
                  5 4 3 11 3.</_></rects>
              <tilted>0</tilted></feature>
            <threshold>0.0292787607759237</threshold>
            <left_val>-0.5876395106315613</left_val>
            <right_val>0.5176668763160706</right_val></_></_>
        <_>
          <_>
            <feature>
              <rects>
                <_>
                  20 14 4 10 -1.</_>
                <_>
                  22 14 2 5 2.</_>
                <_>
                  20 19 2 5 2.</_></rects>
              <tilted>0</tilted></feature>
            <threshold>0.0200293399393559</threshold>
            <left_val>-0.1868961006402969</left_val>
            <right_val>0.8500586748123169</right_val></_></_>
        <_>
          <_>
            <feature>
              <rects>
                <_>
                  9 17 3 7 -1.</_>
                <_>
                  10 17 1 7 3.</_></rects>
              <tilted>0</tilted></feature>
            <threshold>-8.7248592171818018e-004</threshold>
            <left_val>-0.9677876830101013</left_val>
            <right_val>0.2799767851829529</right_val></_></_>
        <_>
          <_>
            <feature>
              <rects>
                <_>
                  7 0 11 4 -1.</_>
                <_>
                  7 1 11 2 2.</_></rects>
              <tilted>0</tilted></feature>
            <threshold>-0.0134960301220417</threshold>
            <left_val>0.7270994782447815</left_val>
            <right_val>-0.3327651917934418</right_val></_></_>
        <_>
          <_>
            <feature>
              <rects>
                <_>
                  0 18 24 6 -1.</_>
                <_>
                  12 18 12 6 2.</_></rects>
              <tilted>0</tilted></feature>
            <threshold>0.0211097300052643</threshold>
            <left_val>0.2851305007934570</left_val>
            <right_val>-0.8293051719665527</right_val></_></_>
        <_>
          <_>
            <feature>
              <rects>
                <_>
                  20 14 4 10 -1.</_>
                <_>
                  22 14 2 5 2.</_>
                <_>
                  20 19 2 5 2.</_></rects>
              <tilted>0</tilted></feature>
            <threshold>-0.0184869207441807</threshold>
            <left_val>0.6270927190780640</left_val>
            <right_val>-0.1301565021276474</right_val></_></_>
        <_>
          <_>
            <feature>
              <rects>
                <_>
                  9 16 4 8 -1.</_>
                <_>
                  10 16 2 8 2.</_></rects>
              <tilted>0</tilted></feature>
            <threshold>2.4229320697486401e-003</threshold>
            <left_val>0.2470009028911591</left_val>
            <right_val>-0.9258061051368713</right_val></_></_></trees>
      <stage_threshold>-0.5678070783615112</stage_threshold>
      <parent>2</parent>
      <next>-1</next></_>
    <_>
      <trees>
        <_>
          <_>
            <feature>
              <rects>
                <_>
                  7 6 11 6 -1.</_>
                <_>
                  5 8 11 2 3.</_></rects>
              <tilted>1</tilted></feature>
            <threshold>0.0235731508582830</threshold>
            <left_val>-0.5857836008071899</left_val>
            <right_val>0.5725129246711731</right_val></_></_>
        <_>
          <_>
            <feature>
              <rects>
                <_>
                  10 22 14 2 -1.</_>
                <_>
                  17 22 7 1 2.</_>
                <_>
                  10 23 7 1 2.</_></rects>
              <tilted>0</tilted></feature>
            <threshold>4.6632010489702225e-003</threshold>
            <left_val>-0.3061473071575165</left_val>
            <right_val>0.7368661761283875</right_val></_></_>
        <_>
          <_>
            <feature>
              <rects>
                <_>
                  5 0 14 1 -1.</_>
                <_>
                  12 0 7 1 2.</_></rects>
              <tilted>0</tilted></feature>
            <threshold>-4.9503571353852749e-003</threshold>
            <left_val>-0.8291317224502564</left_val>
            <right_val>0.3212316036224365</right_val></_></_>
        <_>
          <_>
            <feature>
              <rects>
                <_>
                  11 0 10 3 -1.</_>
                <_>
                  11 0 5 3 2.</_></rects>
              <tilted>0</tilted></feature>
            <threshold>-2.1898669656366110e-003</threshold>
            <left_val>0.2854092121124268</left_val>
            <right_val>-0.4767966866493225</right_val></_></_>
        <_>
          <_>
            <feature>
              <rects>
                <_>
                  1 0 20 2 -1.</_>
                <_>
                  11 0 10 2 2.</_></rects>
              <tilted>0</tilted></feature>
            <threshold>0.0174118094146252</threshold>
            <left_val>0.2680059969425201</left_val>
            <right_val>-0.9182299971580505</right_val></_></_></trees>
      <stage_threshold>-0.9227125048637390</stage_threshold>
      <parent>3</parent>
      <next>-1</next></_>
    <_>
      <trees>
        <_>
          <_>
            <feature>
              <rects>
                <_>
                  11 18 2 2 -1.</_>
                <_>
                  11 19 2 1 2.</_></rects>
              <tilted>0</tilted></feature>
            <threshold>-5.0865448429249227e-005</threshold>
            <left_val>0.5493912100791931</left_val>
            <right_val>-0.6846563220024109</right_val></_></_>
        <_>
          <_>
            <feature>
              <rects>
                <_>
                  6 0 13 4 -1.</_>
                <_>
                  6 1 13 2 2.</_></rects>
              <tilted>0</tilted></feature>
            <threshold>-0.0136071201413870</threshold>
            <left_val>0.6874877214431763</left_val>
            <right_val>-0.3932313919067383</right_val></_></_>
        <_>
          <_>
            <feature>
              <rects>
                <_>
                  2 12 8 2 -1.</_>
                <_>
                  2 12 4 1 2.</_>
                <_>
                  6 13 4 1 2.</_></rects>
              <tilted>0</tilted></feature>
            <threshold>5.8933870604960248e-005</threshold>
            <left_val>-0.6589850783348084</left_val>
            <right_val>0.3622947931289673</right_val></_></_>
        <_>
          <_>
            <feature>
              <rects>
                <_>
                  17 10 7 4 -1.</_>
                <_>
                  17 11 7 2 2.</_></rects>
              <tilted>0</tilted></feature>
            <threshold>-1.2281519593670964e-003</threshold>
            <left_val>-0.8523882031440735</left_val>
            <right_val>0.1425942927598953</right_val></_></_>
        <_>
          <_>
            <feature>
              <rects>
                <_>
                  0 10 7 4 -1.</_>
                <_>
                  0 11 7 2 2.</_></rects>
              <tilted>0</tilted></feature>
            <threshold>1.8168330425396562e-003</threshold>
            <left_val>0.1861681938171387</left_val>
            <right_val>-0.9654034972190857</right_val></_></_>
        <_>
          <_>
            <feature>
              <rects>
                <_>
                  21 14 3 10 -1.</_>
                <_>
                  22 14 1 10 3.</_></rects>
              <tilted>0</tilted></feature>
            <threshold>9.3077287601772696e-005</threshold>
            <left_val>-0.3732436001300812</left_val>
            <right_val>0.2785356938838959</right_val></_></_></trees>
      <stage_threshold>-1.1295750141143799</stage_threshold>
      <parent>4</parent>
      <next>-1</next></_>
    <_>
      <trees>
        <_>
          <_>
            <feature>
              <rects>
                <_>
                  0 22 12 2 -1.</_>
                <_>
                  0 22 6 1 2.</_>
                <_>
                  6 23 6 1 2.</_></rects>
              <tilted>0</tilted></feature>
            <threshold>5.6672170758247375e-003</threshold>
            <left_val>-0.3729482889175415</left_val>
            <right_val>0.7443827986717224</right_val></_></_>
        <_>
          <_>
            <feature>
              <rects>
                <_>
                  15 2 4 3 -1.</_>
                <_>
                  14 3 4 1 3.</_></rects>
              <tilted>1</tilted></feature>
            <threshold>3.9834189228713512e-003</threshold>
            <left_val>-0.3876365125179291</left_val>
            <right_val>0.6164301037788391</right_val></_></_>
        <_>
          <_>
            <feature>
              <rects>
                <_>
                  9 2 3 4 -1.</_>
                <_>
                  10 3 1 4 3.</_></rects>
              <tilted>1</tilted></feature>
            <threshold>1.4075560029596090e-003</threshold>
            <left_val>-0.5603824853897095</left_val>
            <right_val>0.3941332101821899</right_val></_></_>
        <_>
          <_>
            <feature>
              <rects>
                <_>
                  20 15 4 9 -1.</_>
                <_>
                  21 15 2 9 2.</_></rects>
              <tilted>0</tilted></feature>
            <threshold>4.9653640016913414e-003</threshold>
            <left_val>-0.1492419987916946</left_val>
            <right_val>0.3213581144809723</right_val></_></_>
        <_>
          <_>
            <feature>
              <rects>
                <_>
                  0 15 4 9 -1.</_>
                <_>
                  1 15 2 9 2.</_></rects>
              <tilted>0</tilted></feature>
            <threshold>7.0451467763632536e-004</threshold>
            <left_val>-0.4968824088573456</left_val>
            <right_val>0.3650053143501282</right_val></_></_>
        <_>
          <_>
            <feature>
              <rects>
                <_>
                  11 5 4 6 -1.</_>
                <_>
                  11 7 4 2 3.</_></rects>
              <tilted>0</tilted></feature>
            <threshold>0.0141716599464417</threshold>
            <left_val>-0.1581276059150696</left_val>
            <right_val>0.5792295932769775</right_val></_></_>
        <_>
          <_>
            <feature>
              <rects>
                <_>
                  0 8 14 16 -1.</_>
                <_>
                  0 12 14 8 2.</_></rects>
              <tilted>0</tilted></feature>
            <threshold>0.0129656996577978</threshold>
            <left_val>-0.6792395710945129</left_val>
            <right_val>0.3088288009166718</right_val></_></_>
        <_>
          <_>
            <feature>
              <rects>
                <_>
                  14 4 6 9 -1.</_>
                <_>
                  16 7 2 3 9.</_></rects>
              <tilted>0</tilted></feature>
            <threshold>1.2258429778739810e-003</threshold>
            <left_val>-0.5270836949348450</left_val>
            <right_val>0.2009450942277908</right_val></_></_>
        <_>
          <_>
            <feature>
              <rects>
                <_>
                  7 6 6 10 -1.</_>
                <_>
                  9 6 2 10 3.</_></rects>
              <tilted>0</tilted></feature>
            <threshold>-5.5378028191626072e-003</threshold>
            <left_val>0.3689227998256683</left_val>
            <right_val>-0.6732609272003174</right_val></_></_></trees>
      <stage_threshold>-1.3727040290832520</stage_threshold>
      <parent>5</parent>
      <next>-1</next></_>
    <_>
      <trees>
        <_>
          <_>
            <feature>
              <rects>
                <_>
                  8 0 2 5 -1.</_>
                <_>
                  9 0 1 5 2.</_></rects>
              <tilted>0</tilted></feature>
            <threshold>-6.7015062086284161e-005</threshold>
            <left_val>0.3647426068782806</left_val>
            <right_val>-0.7324246764183044</right_val></_></_>
        <_>
          <_>
            <feature>
              <rects>
                <_>
                  20 14 4 10 -1.</_>
                <_>
                  22 14 2 5 2.</_>
                <_>
                  20 19 2 5 2.</_></rects>
              <tilted>0</tilted></feature>
            <threshold>0.0278909392654896</threshold>
            <left_val>-0.1966176927089691</left_val>
            <right_val>0.7907810807228088</right_val></_></_>
        <_>
          <_>
            <feature>
              <rects>
                <_>
                  4 3 3 4 -1.</_>
                <_>
                  4 5 3 2 2.</_></rects>
              <tilted>0</tilted></feature>
            <threshold>7.8407778346445411e-005</threshold>
            <left_val>-0.7246869802474976</left_val>
            <right_val>0.3039891123771668</right_val></_></_>
        <_>
          <_>
            <feature>
              <rects>
                <_>
                  7 3 12 1 -1.</_>
                <_>
                  11 3 4 1 3.</_></rects>
              <tilted>0</tilted></feature>
            <threshold>2.6689929654821754e-004</threshold>
            <left_val>-0.3070454895496368</left_val>
            <right_val>0.2835896909236908</right_val></_></_>
        <_>
          <_>
            <feature>
              <rects>
                <_>
                  0 0 24 6 -1.</_>
                <_>
                  0 3 24 3 2.</_></rects>
              <tilted>0</tilted></feature>
            <threshold>-0.0272181406617165</threshold>
            <left_val>0.4696860015392304</left_val>
            <right_val>-0.4460203945636749</right_val></_></_>
        <_>
          <_>
            <feature>
              <rects>
                <_>
                  12 4 11 6 -1.</_>
                <_>
                  10 6 11 2 3.</_></rects>
              <tilted>1</tilted></feature>
            <threshold>-0.0421933494508266</threshold>
            <left_val>0.3777390122413635</left_val>
            <right_val>-0.2784919142723084</right_val></_></_>
        <_>
          <_>
            <feature>
              <rects>
                <_>
                  1 15 16 6 -1.</_>
                <_>
                  1 15 8 3 2.</_>
                <_>
                  9 18 8 3 2.</_></rects>
              <tilted>0</tilted></feature>
            <threshold>-4.2118038982152939e-004</threshold>
            <left_val>0.3953487873077393</left_val>
            <right_val>-0.5589380860328674</right_val></_></_>
        <_>
          <_>
            <feature>
              <rects>
                <_>
                  13 5 1 3 -1.</_>
                <_>
                  12 6 1 1 3.</_></rects>
              <tilted>1</tilted></feature>
            <threshold>3.4266489092260599e-004</threshold>
            <left_val>-0.3978441059589386</left_val>
            <right_val>0.3769553899765015</right_val></_></_>
        <_>
          <_>
            <feature>
              <rects>
                <_>
                  8 2 8 16 -1.</_>
                <_>
                  10 2 4 16 2.</_></rects>
              <tilted>0</tilted></feature>
            <threshold>-6.2424349598586559e-003</threshold>
            <left_val>0.3272685110569000</left_val>
            <right_val>-0.5974758863449097</right_val></_></_>
        <_>
          <_>
            <feature>
              <rects>
                <_>
                  21 16 3 5 -1.</_>
                <_>
                  22 17 1 5 3.</_></rects>
              <tilted>1</tilted></feature>
            <threshold>-8.7127126753330231e-003</threshold>
            <left_val>0.6110671758651733</left_val>
            <right_val>-0.2219015955924988</right_val></_></_>
        <_>
          <_>
            <feature>
              <rects>
                <_>
                  8 1 4 2 -1.</_>
                <_>
                  9 1 2 2 2.</_></rects>
              <tilted>0</tilted></feature>
            <threshold>-9.4980379799380898e-004</threshold>
            <left_val>-0.9178909063339233</left_val>
            <right_val>0.2235205024480820</right_val></_></_></trees>
      <stage_threshold>-1.3302190303802490</stage_threshold>
      <parent>6</parent>
      <next>-1</next></_>
    <_>
      <trees>
        <_>
          <_>
            <feature>
              <rects>
                <_>
                  1 0 22 4 -1.</_>
                <_>
                  1 2 22 2 2.</_></rects>
              <tilted>0</tilted></feature>
            <threshold>-0.0313491784036160</threshold>
            <left_val>0.5930290222167969</left_val>
            <right_val>-0.4771204888820648</right_val></_></_>
        <_>
          <_>
            <feature>
              <rects>
                <_>
                  20 14 4 10 -1.</_>
                <_>
                  22 14 2 5 2.</_>
                <_>
                  20 19 2 5 2.</_></rects>
              <tilted>0</tilted></feature>
            <threshold>0.0350734591484070</threshold>
            <left_val>-0.1737746000289917</left_val>
            <right_val>0.8099942803382874</right_val></_></_>
        <_>
          <_>
            <feature>
              <rects>
                <_>
                  6 3 6 5 -1.</_>
                <_>
                  8 5 2 5 3.</_></rects>
              <tilted>1</tilted></feature>
            <threshold>0.0143057601526380</threshold>
            <left_val>-0.6651868224143982</left_val>
            <right_val>0.4628666043281555</right_val></_></_>
        <_>
          <_>
            <feature>
              <rects>
                <_>
                  6 8 18 12 -1.</_>
                <_>
                  6 11 18 6 2.</_></rects>
              <tilted>0</tilted></feature>
            <threshold>0.0303117595613003</threshold>
            <left_val>-0.6460065245628357</left_val>
            <right_val>0.3742729127407074</right_val></_></_>
        <_>
          <_>
            <feature>
              <rects>
                <_>
                  7 0 8 16 -1.</_>
                <_>
                  9 0 4 16 2.</_></rects>
              <tilted>0</tilted></feature>
            <threshold>-1.0158659424632788e-003</threshold>
            <left_val>0.2739793956279755</left_val>
            <right_val>-0.9270297288894653</right_val></_></_>
        <_>
          <_>
            <feature>
              <rects>
                <_>
                  9 19 6 5 -1.</_>
                <_>
                  9 19 3 5 2.</_></rects>
              <tilted>0</tilted></feature>
            <threshold>7.9821431427262723e-005</threshold>
            <left_val>-0.8579233884811401</left_val>
            <right_val>0.2924892008304596</right_val></_></_>
        <_>
          <_>
            <feature>
              <rects>
                <_>
                  0 15 4 9 -1.</_>
                <_>
                  1 15 2 9 2.</_></rects>
              <tilted>0</tilted></feature>
            <threshold>1.5968660591170192e-004</threshold>
            <left_val>-0.8705636262893677</left_val>
            <right_val>0.3613243997097015</right_val></_></_>
        <_>
          <_>
            <feature>
              <rects>
                <_>
                  16 0 6 4 -1.</_>
                <_>
                  16 0 3 4 2.</_></rects>
              <tilted>0</tilted></feature>
            <threshold>-2.2003529593348503e-003</threshold>
            <left_val>0.4989891052246094</left_val>
            <right_val>-0.8677722215652466</right_val></_></_>
        <_>
          <_>
            <feature>
              <rects>
                <_>
                  5 0 3 16 -1.</_>
                <_>
                  6 0 1 16 3.</_></rects>
              <tilted>0</tilted></feature>
            <threshold>3.6893128708470613e-005</threshold>
            <left_val>-0.9050660133361816</left_val>
            <right_val>0.3923901021480560</right_val></_></_>
        <_>
          <_>
            <feature>
              <rects>
                <_>
                  11 5 3 3 -1.</_>
                <_>
                  12 6 1 1 9.</_></rects>
              <tilted>0</tilted></feature>
            <threshold>1.5696870104875416e-004</threshold>
            <left_val>-0.7650222778320313</left_val>
            <right_val>0.3186073005199432</right_val></_></_>
        <_>
          <_>
            <feature>
              <rects>
                <_>
                  5 1 12 13 -1.</_>
                <_>
                  8 1 6 13 2.</_></rects>
              <tilted>0</tilted></feature>
            <threshold>-1.0748739587143064e-003</threshold>
            <left_val>0.2943702936172485</left_val>
            <right_val>-0.9705380797386169</right_val></_></_>
        <_>
          <_>
            <feature>
              <rects>
                <_>
                  2 6 21 6 -1.</_>
                <_>
                  9 8 7 2 9.</_></rects>
              <tilted>0</tilted></feature>
            <threshold>0.0289951097220182</threshold>
            <left_val>-0.6333425045013428</left_val>
            <right_val>0.7467163205146790</right_val></_></_></trees>
      <stage_threshold>-1.6736559867858887</stage_threshold>
      <parent>7</parent>
      <next>-1</next></_>
    <_>
      <trees>
        <_>
          <_>
            <feature>
              <rects>
                <_>
                  5 1 3 4 -1.</_>
                <_>
                  6 1 1 4 3.</_></rects>
              <tilted>0</tilted></feature>
            <threshold>7.7143771341070533e-004</threshold>
            <left_val>0.2951782941818237</left_val>
            <right_val>-0.9190179705619812</right_val></_></_>
        <_>
          <_>
            <feature>
              <rects>
                <_>
                  12 22 12 2 -1.</_>
                <_>
                  18 22 6 1 2.</_>
                <_>
                  12 23 6 1 2.</_></rects>
              <tilted>0</tilted></feature>
            <threshold>8.4043256938457489e-003</threshold>
            <left_val>-0.2544018030166626</left_val>
            <right_val>0.5360587835311890</right_val></_></_>
        <_>
          <_>
            <feature>
              <rects>
                <_>
                  0 7 7 3 -1.</_>
                <_>
                  0 8 7 1 3.</_></rects>
              <tilted>0</tilted></feature>
            <threshold>-6.0724420472979546e-004</threshold>
            <left_val>-0.9232795238494873</left_val>
            <right_val>0.2718490064144135</right_val></_></_>
        <_>
          <_>
            <feature>
              <rects>
                <_>
                  20 7 4 3 -1.</_>
                <_>
                  20 8 4 1 3.</_></rects>
              <tilted>0</tilted></feature>
            <threshold>-8.3159928908571601e-004</threshold>
            <left_val>-0.7947790026664734</left_val>
            <right_val>0.1253463029861450</right_val></_></_>
        <_>
          <_>
            <feature>
              <rects>
                <_>
                  0 7 4 3 -1.</_>
                <_>
                  0 8 4 1 3.</_></rects>
              <tilted>0</tilted></feature>
            <threshold>4.8841757234185934e-004</threshold>
            <left_val>0.3479714989662170</left_val>
            <right_val>-0.7674813866615295</right_val></_></_></trees>
      <stage_threshold>-0.7532452940940857</stage_threshold>
      <parent>8</parent>
      <next>-1</next></_>
    <_>
      <trees>
        <_>
          <_>
            <feature>
              <rects>
                <_>
                  0 14 4 10 -1.</_>
                <_>
                  0 14 2 5 2.</_>
                <_>
                  2 19 2 5 2.</_></rects>
              <tilted>0</tilted></feature>
            <threshold>0.0134069398045540</threshold>
            <left_val>-0.3477906882762909</left_val>
            <right_val>0.6665276288986206</right_val></_></_>
        <_>
          <_>
            <feature>
              <rects>
                <_>
                  18 10 6 4 -1.</_>
                <_>
                  18 11 6 2 2.</_></rects>
              <tilted>0</tilted></feature>
            <threshold>2.4625279475003481e-003</threshold>
            <left_val>0.1707178056240082</left_val>
            <right_val>-0.8751993775367737</right_val></_></_>
        <_>
          <_>
            <feature>
              <rects>
                <_>
                  0 10 6 4 -1.</_>
                <_>
                  0 11 6 2 2.</_></rects>
              <tilted>0</tilted></feature>
            <threshold>-6.2190828612074256e-004</threshold>
            <left_val>-0.8128340244293213</left_val>
            <right_val>0.2893629074096680</right_val></_></_>
        <_>
          <_>
            <feature>
              <rects>
                <_>
                  18 10 3 2 -1.</_>
                <_>
                  18 11 3 1 2.</_></rects>
              <tilted>0</tilted></feature>
            <threshold>-5.0178711535409093e-004</threshold>
            <left_val>-0.8585808873176575</left_val>
            <right_val>0.1019451022148132</right_val></_></_>
        <_>
          <_>
            <feature>
              <rects>
                <_>
                  3 10 3 2 -1.</_>
                <_>
                  3 11 3 1 2.</_></rects>
              <tilted>0</tilted></feature>
            <threshold>2.5365411420352757e-004</threshold>
            <left_val>0.2527435123920441</left_val>
            <right_val>-0.8290098905563355</right_val></_></_>
        <_>
          <_>
            <feature>
              <rects>
                <_>
                  16 0 5 4 -1.</_>
                <_>
                  16 2 5 2 2.</_></rects>
              <tilted>0</tilted></feature>
            <threshold>-4.0596388280391693e-003</threshold>
            <left_val>0.3667035996913910</left_val>
            <right_val>-0.6937559247016907</right_val></_></_>
        <_>
          <_>
            <feature>
              <rects>
                <_>
                  11 10 2 11 -1.</_>
                <_>
                  11 10 1 11 2.</_></rects>
              <tilted>1</tilted></feature>
            <threshold>4.8342319205403328e-003</threshold>
            <left_val>0.1732140928506851</left_val>
            <right_val>-0.8844429850578308</right_val></_></_>
        <_>
          <_>
            <feature>
              <rects>
                <_>
                  15 13 8 3 -1.</_>
                <_>
                  14 14 8 1 3.</_></rects>
              <tilted>1</tilted></feature>
            <threshold>3.3291829749941826e-003</threshold>
            <left_val>0.0843825489282608</left_val>
            <right_val>-0.7709684967994690</right_val></_></_></trees>
      <stage_threshold>-1.0713779926300049</stage_threshold>
      <parent>9</parent>
      <next>-1</next></_>
    <_>
      <trees>
        <_>
          <_>
            <feature>
              <rects>
                <_>
                  0 18 6 6 -1.</_>
                <_>
                  0 18 3 3 2.</_>
                <_>
                  3 21 3 3 2.</_></rects>
              <tilted>0</tilted></feature>
            <threshold>0.0152154397219419</threshold>
            <left_val>-0.3296394944190979</left_val>
            <right_val>0.7686532139778137</right_val></_></_>
        <_>
          <_>
            <feature>
              <rects>
                <_>
                  8 0 12 4 -1.</_>
                <_>
                  8 1 12 2 2.</_></rects>
              <tilted>0</tilted></feature>
            <threshold>-0.0107859699055552</threshold>
            <left_val>0.5835536718368530</left_val>
            <right_val>-0.2545169889926910</right_val></_></_>
        <_>
          <_>
            <feature>
              <rects>
                <_>
                  6 3 9 1 -1.</_>
                <_>
                  9 3 3 1 3.</_></rects>
              <tilted>0</tilted></feature>
            <threshold>-8.7868748232722282e-004</threshold>
            <left_val>-0.5969880819320679</left_val>
            <right_val>0.3374679088592529</right_val></_></_>
        <_>
          <_>
            <feature>
              <rects>
                <_>
                  18 12 1 3 -1.</_>
                <_>
                  18 13 1 1 3.</_></rects>
              <tilted>0</tilted></feature>
            <threshold>-2.6503211120143533e-004</threshold>
            <left_val>-0.9195535182952881</left_val>
            <right_val>0.1602683961391449</right_val></_></_>
        <_>
          <_>
            <feature>
              <rects>
                <_>
                  7 0 9 3 -1.</_>
                <_>
                  7 1 9 1 3.</_></rects>
              <tilted>0</tilted></feature>
            <threshold>5.3819888271391392e-003</threshold>
            <left_val>-0.2895579040050507</left_val>
            <right_val>0.6762486100196838</right_val></_></_>
        <_>
          <_>
            <feature>
              <rects>
                <_>
                  17 10 5 3 -1.</_>
                <_>
                  17 11 5 1 3.</_></rects>
              <tilted>0</tilted></feature>
            <threshold>-6.9161661667749286e-004</threshold>
            <left_val>-0.9422701001167297</left_val>
            <right_val>0.2004379928112030</right_val></_></_>
        <_>
          <_>
            <feature>
              <rects>
                <_>
                  0 0 6 10 -1.</_>
                <_>
                  0 5 6 5 2.</_></rects>
              <tilted>0</tilted></feature>
            <threshold>0.0180410202592611</threshold>
            <left_val>0.2409505993127823</left_val>
            <right_val>-0.7192382216453552</right_val></_></_>
        <_>
          <_>
            <feature>
              <rects>
                <_>
                  16 13 6 3 -1.</_>
                <_>
                  15 14 6 1 3.</_></rects>
              <tilted>1</tilted></feature>
            <threshold>3.1502249184995890e-003</threshold>
            <left_val>0.0690303668379784</left_val>
            <right_val>-0.8677517771720886</right_val></_></_></trees>
      <stage_threshold>-1.0082670450210571</stage_threshold>
      <parent>10</parent>
      <next>-1</next></_>
    <_>
      <trees>
        <_>
          <_>
            <feature>
              <rects>
                <_>
                  7 14 3 5 -1.</_>
                <_>
                  8 15 1 5 3.</_></rects>
              <tilted>1</tilted></feature>
            <threshold>2.2292418871074915e-003</threshold>
            <left_val>0.2550714910030365</left_val>
            <right_val>-0.9578902721405029</right_val></_></_>
        <_>
          <_>
            <feature>
              <rects>
                <_>
                  17 14 5 3 -1.</_>
                <_>
                  16 15 5 1 3.</_></rects>
              <tilted>1</tilted></feature>
            <threshold>-3.1836871057748795e-003</threshold>
            <left_val>-0.8903573155403137</left_val>
            <right_val>0.1320451050996780</right_val></_></_>
        <_>
          <_>
            <feature>
              <rects>
                <_>
                  7 14 3 5 -1.</_>
                <_>
                  8 15 1 5 3.</_></rects>
              <tilted>1</tilted></feature>
            <threshold>-1.2605469673871994e-003</threshold>
            <left_val>-0.8570616245269775</left_val>
            <right_val>0.2322351932525635</right_val></_></_>
        <_>
          <_>
            <feature>
              <rects>
                <_>
                  14 22 10 2 -1.</_>
                <_>
                  19 22 5 1 2.</_>
                <_>
                  14 23 5 1 2.</_></rects>
              <tilted>0</tilted></feature>
            <threshold>7.6498561538755894e-003</threshold>
            <left_val>-0.2533253133296967</left_val>
            <right_val>0.7228780984878540</right_val></_></_></trees>
      <stage_threshold>-0.7232702970504761</stage_threshold>
      <parent>11</parent>
      <next>-1</next></_>
    <_>
      <trees>
        <_>
          <_>
            <feature>
              <rects>
                <_>
                  7 14 3 4 -1.</_>
                <_>
                  8 15 1 4 3.</_></rects>
              <tilted>1</tilted></feature>
            <threshold>-1.0901560308411717e-003</threshold>
            <left_val>-0.8552042245864868</left_val>
            <right_val>0.2775385081768036</right_val></_></_>
        <_>
          <_>
            <feature>
              <rects>
                <_>
                  16 20 8 4 -1.</_>
                <_>
                  20 20 4 2 2.</_>
                <_>
                  16 22 4 2 2.</_></rects>
              <tilted>0</tilted></feature>
            <threshold>0.0149294799193740</threshold>
            <left_val>-0.2516373991966248</left_val>
            <right_val>0.5617712140083313</right_val></_></_>
        <_>
          <_>
            <feature>
              <rects>
                <_>
                  6 0 3 5 -1.</_>
                <_>
                  7 0 1 5 3.</_></rects>
              <tilted>0</tilted></feature>
            <threshold>1.1797170154750347e-003</threshold>
            <left_val>0.2126318067312241</left_val>
            <right_val>-0.9404730796813965</right_val></_></_>
        <_>
          <_>
            <feature>
              <rects>
                <_>
                  20 13 4 7 -1.</_>
                <_>
                  21 14 2 7 2.</_></rects>
              <tilted>1</tilted></feature>
            <threshold>-0.0161988399922848</threshold>
            <left_val>0.5279468894004822</left_val>
            <right_val>-0.2482492029666901</right_val></_></_>
        <_>
          <_>
            <feature>
              <rects>
                <_>
                  7 0 6 4 -1.</_>
                <_>
                  9 0 2 4 3.</_></rects>
              <tilted>0</tilted></feature>
            <threshold>3.0080729629844427e-003</threshold>
            <left_val>0.2344568967819214</left_val>
            <right_val>-0.9289346933364868</right_val></_></_></trees>
      <stage_threshold>-0.9080020189285278</stage_threshold>
      <parent>12</parent>
      <next>-1</next></_>
    <_>
      <trees>
        <_>
          <_>
            <feature>
              <rects>
                <_>
                  0 22 10 2 -1.</_>
                <_>
                  0 22 5 1 2.</_>
                <_>
                  5 23 5 1 2.</_></rects>
              <tilted>0</tilted></feature>
            <threshold>6.8438379094004631e-003</threshold>
            <left_val>-0.3160359859466553</left_val>
            <right_val>0.7377501726150513</right_val></_></_>
        <_>
          <_>
            <feature>
              <rects>
                <_>
                  13 3 6 3 -1.</_>
                <_>
                  15 4 2 1 9.</_></rects>
              <tilted>0</tilted></feature>
            <threshold>9.4126714393496513e-003</threshold>
            <left_val>-0.1035668998956680</left_val>
            <right_val>0.4908590018749237</right_val></_></_>
        <_>
          <_>
            <feature>
              <rects>
                <_>
                  2 8 5 4 -1.</_>
                <_>
                  2 10 5 2 2.</_></rects>
              <tilted>0</tilted></feature>
            <threshold>-1.7206120537593961e-003</threshold>
            <left_val>-0.8055763244628906</left_val>
            <right_val>0.2650321125984192</right_val></_></_>
        <_>
          <_>
            <feature>
              <rects>
                <_>
                  18 9 2 2 -1.</_>
                <_>
                  18 10 2 1 2.</_></rects>
              <tilted>0</tilted></feature>
            <threshold>7.2650547372177243e-004</threshold>
            <left_val>0.1090145036578178</left_val>
            <right_val>-0.9437009096145630</right_val></_></_>
        <_>
          <_>
            <feature>
              <rects>
                <_>
                  4 9 2 2 -1.</_>
                <_>
                  4 10 2 1 2.</_></rects>
              <tilted>0</tilted></feature>
            <threshold>3.2595021184533834e-004</threshold>
            <left_val>0.2222577929496765</left_val>
            <right_val>-0.8627340197563171</right_val></_></_>
        <_>
          <_>
            <feature>
              <rects>
                <_>
                  18 0 6 4 -1.</_>
                <_>
                  21 0 3 2 2.</_>
                <_>
                  18 2 3 2 2.</_></rects>
              <tilted>0</tilted></feature>
            <threshold>-6.1106230132281780e-003</threshold>
            <left_val>0.5504764914512634</left_val>
            <right_val>-0.4306674003601074</right_val></_></_>
        <_>
          <_>
            <feature>
              <rects>
                <_>
                  10 7 2 2 -1.</_>
                <_>
                  10 7 2 1 2.</_></rects>
              <tilted>1</tilted></feature>
            <threshold>1.2824609875679016e-003</threshold>
            <left_val>-0.3313814103603363</left_val>
            <right_val>0.6076884865760803</right_val></_></_></trees>
      <stage_threshold>-0.7168856859207153</stage_threshold>
      <parent>13</parent>
      <next>-1</next></_></stages></myhaar>
</opencv_storage>
